#define MNN_MAX_PACKET_SIZE 1
#define MNN_MIN_PACKET_SIZE 0
#define MNN_MAX_TTL 1
#define MNN_MIN_TTL 0
#define MNN_MAX_PROTOCOL 1
#define MNN_MIN_PROTOCOL 0
#define MNN_MAX_SRC_PORT 1
#define MNN_MIN_SRC_PORT 0
#define MNN_MAX_DST_PORT 1
#define MNN_MIN_DST_PORT 0
#define MNN_MAX_TCP_FLAGS 1
#define MNN_MIN_TCP_FLAGS 0
#define MNN_MAX_PAYLOAD_SIZE 1
#define MNN_MIN_PAYLOAD_SIZE 0
#define MNN_MAX_TCP_WINDOW 1
#define MNN_MIN_TCP_WINDOW 0

/* Layer 0: 8 Inputs → 16 Outputs */
float w0[] = {0.15610135, -0.29708505, -0.28846547, 0.25410366, 0.14746921, -0.22028159, 0.004198788, 0.2377824, 0.098205276, -0.2162427, -0.019400489, -0.13406305, -0.18312852, -0.12074937, -0.012947006, 0.17741749, -0.07302801, 0.17379619, 0.32814667, -0.11963812, 0.015813282, -0.22358412, -0.13361469, -0.026783893, -0.21744701, -0.14278986, -0.017424138, -0.2342349, -0.19909416, -0.3349593, 0.33569348, -0.09508051, 0.14015791, -0.07651438, 0.27915686, 0.28165764, -0.29179823, -0.2871517, -0.06904231, -0.003690705, -0.050564367, 0.21203381, 0.26070997, 0.23750763, 0.21484229, 0.056360546, -0.02299654, -0.08946745, 0.111968294, -0.0002715928, -0.0653599, 0.34322706, -0.18402551, 0.2915857, -0.26872408, -0.17009194, -0.114080735, 0.2729644, -0.1804524, 0.12400416, -0.1704242, 0.3394241, 0.28814343, 0.29406253, 0.22812715, 0.2335052, -0.003424568, 0.15909263, 0.29726577, -0.25517544, -0.035308015, -0.015607442, 0.32379952, 0.2922272, -0.030195797, 0.17063732, 0.04032827, -0.00793022, -0.32778662, -0.25764138, -0.29280934, 0.26625782, 0.1853189, 0.3075433, -0.21477646, 0.08529742, 0.21145049, -0.26381123, -0.33380523, 0.03399936, 0.14546113, -0.051643755, 0.23362137, 0.08505582, -0.17099334, 0.13819012, 0.02870952, -0.12794808, -0.14258508, 0.3369355, -0.06514748, 0.16043663, 0.1822919, -0.30010808, 0.14654337, -0.3455565, -0.31455997, -0.25280863, 0.11153403, 0.19837837, -0.039253592, -0.24861212, -0.14591677, 0.12711915, 0.26995927, -0.06597969, 0.17638318, 0.31551847, -0.07636339, 0.21845019, 0.13886629, -0.19676083, -0.16532734, 0.1217943, -0.2532817, 0.2110917, 0.29915082, 0.2973697};
float b0[] = {0.03394463, 0.054680225, 0.049619265, 0.28521177, 0.0065198336, -0.13321665, 0.05950614, 0.18609115, -0.32412922, -0.2728627, -0.29084104, -0.32107848, -0.15567581, -0.15431595, -0.07275031, 0.33588338};

/* Layer 1: 16 Inputs → 8 Outputs */
float w1[] = {-0.14743605, 0.24766427, 0.20926946, 0.10666716, 0.12911212, -0.11075202, 0.056366026, -0.0645822, 0.11087608, 0.20919672, -0.065136135, -0.029178828, -0.03307578, -0.07016119, -0.19096547, -0.18217677, -0.24223383, -0.09908888, 0.185955, 0.10367151, -0.11872077, 0.013339317, -0.083665974, -0.15223235, 0.11124703, 0.21622136, -0.118059345, 0.035341263, -0.20355424, 0.14228988, -0.018302524, -0.06347222, 0.21880607, 0.14241403, 0.0077646854, -0.16095738, 0.23609737, 0.14477327, 0.19712259, 0.19123721, -0.14056441, -0.15644851, -0.18137303, 0.050503552, 0.17870124, -0.14846739, -0.039060913, 0.026171863, -0.15482016, -0.009491652, 0.23828578, -0.12296404, -0.015362475, -0.20303482, 0.13279742, 0.12667787, 0.2491861, 0.13661265, 0.06357875, -0.052176625, -0.19863822, 0.10608339, -0.24432471, 0.1611108, 0.088088244, -0.10825014, -0.20634046, -0.032763243, 0.23394889, -0.17372611, -0.15465662, 0.032900512, 0.055206597, 0.031897902, 0.07639545, 0.041020334, -0.09299329, -0.14190543, 0.061213493, -0.072243005, 0.09166521, -0.18115115, 0.014931961, -0.13744469, 0.11005238, -0.075315, -0.15623431, 0.21112107, -0.00823696, -0.22813895, 0.1699118, -0.180861, -0.18691069, -0.15736791, 0.15357225, -0.22101715, 0.105158836, 0.08394706, -0.00011840463, -0.120859385, 0.0656403, -0.13149217, -0.11333156, 0.1882999, -0.071403325, 0.23554695, -0.00055172306, 0.17961904, 0.04475516, 0.17952085, -0.05743721, 0.024795204, 0.033058353, -0.16750696, 0.1719633, -0.12259334, -0.07761863, -0.040552214, 0.15113643, -0.24103478, 0.040037185, 0.18597731, -0.019714963, 0.16423386, -0.21968384, -0.0034126106, 0.16338538, -0.23677248};
float b1[] = {-0.1723201, 0.12049512, 0.19594383, -0.059703954, -0.092469156, 0.16105318, -0.1001907, 0.24250264};

/* Layer 2: 8 Inputs → 1 Outputs */
float w2[] = {0.1436749, 0.18060686, 0.098610006, 0.089121595, 0.31151456, -0.3526394, -0.060691375, 0.032990597};
float b2[] = {0.14237013};

/* Layer 3: 1 Inputs → 8 Outputs */
float w3[] = {-0.6620318, -0.45895016, -0.8903222, -0.2523203, 0.4150705, 0.61748403, 0.31621182, 0.17062347};
float b3[] = {0.26908392, -0.78828, -0.6320214, -0.65020037, 0.19707416, 0.7170091, -0.613884, 0.7826582};

/* Layer 4: 8 Inputs → 16 Outputs */
float w4[] = {0.13587402, -0.21163517, -0.07938418, 0.013283759, 0.1777553, 0.19315395, -0.29795033, -0.1969995, -0.22366105, 0.25877684, 0.018668314, -0.26526025, -0.21524155, -0.035592508, 0.2576377, 0.086192034, 0.3380144, 0.23290576, -0.08463512, -0.00040490477, 0.20443864, -0.1654118, -0.1692655, 0.19511385, -0.26234755, -0.30002415, -0.24020854, -0.26950106, 0.32964194, 0.22351027, -0.20354146, -0.008448515, -0.097759865, -0.2913942, -0.34560722, -0.22558755, 0.024000734, -0.12332391, -0.23253554, -0.031685326, 0.057462636, 0.18165055, -0.026815215, -0.14433053, 0.18586972, -0.071905226, -0.32925016, 0.0902145, 0.25120082, 0.22949363, -0.31809756, 0.23754604, -0.29630423, 0.23750705, -0.32728508, 0.083228186, 0.14961082, -0.03320392, 0.334092, 0.06216681, 0.33181497, -0.33007666, -0.02638064, -0.20028575, -0.28097138, 0.23989253, 0.16408797, -0.00010271187, -0.2663728, -0.028246058, -0.14323531, 0.33742964, -0.08468891, 0.088835396, -0.12974156, -0.10031873, -0.2395248, -0.15683351, -0.22567403, -0.23364577, -0.10067732, 0.026690671, 0.046048213, 0.053865526, 0.2109718, -0.19724047, 0.11980246, 0.293489, 0.08129568, 0.017244635, 0.2768132, 0.24027944, -0.1767655, -0.10761257, 0.2409035, 0.18985052, -0.14836515, 0.031055778, -0.018240102, 0.1105535, 0.29323107, 0.24008477, -0.24954416, 0.13211676, -0.0990504, -0.19268472, 0.27784172, 0.07506931, 0.14946292, 0.22656043, 0.10640806, -0.10184976, -0.2147717, 0.11668603, -0.17249794, 0.31681228, 0.21294576, 0.12090882, 0.26640007, 0.054536894, 0.21714874, -0.013752727, 0.33943853, 0.09266018, -0.29971048, 0.06614388, -0.046461422, -0.1983034};
float b4[] = {-0.22553684, -0.17666243, -0.20632336, 0.0069741793, -0.21479934, -0.04460398, 0.2181092, -0.029828547, -0.17606184, 0.011297041, 0.023090422, 0.046885185, -0.34009063, -0.18649268, 0.21348846, 0.1331383};

/* Layer 5: 16 Inputs → 8 Outputs */
float w5[] = {-0.030027747, -0.19427049, -0.15071425, 0.19422035, 0.18478304, -0.12301447, -0.05261981, -0.23887876, 0.19434908, 0.086962104, 0.24488999, 0.1728055, -0.1845478, -0.24925828, 0.050968386, -0.033011824, 0.03229603, 0.021359593, -0.18713513, -0.22525097, -0.041050732, -0.022348361, 0.10063903, -0.08088279, -0.100964874, -0.08261266, 0.1104753, 0.12683234, -0.14909488, 0.12092945, -0.024114573, -0.030328006, -0.20262793, -0.23878181, -0.14197248, -0.23880363, 0.060785472, -0.18891342, -0.1062515, -0.1362153, -0.03190437, -0.15187186, 0.016034422, 0.19027467, -0.17735356, -0.18955627, 0.11399889, -0.14695898, -0.18455416, 0.21179464, -0.1858038, -0.23040459, -0.13179782, 0.17247368, -0.22093198, 0.0036980808, 0.09814659, -0.22208741, 0.1536591, 0.20754388, 0.18858226, 0.07112086, 0.08828253, 0.05962318, 0.22866729, -0.1654889, -0.20101538, 0.13843656, 0.20704535, 0.04690848, 0.2940773, 0.18078619, -0.035939634, -0.042582095, 0.23724718, -0.14314611, 0.06989624, 0.1318706, -0.10594983, -0.13479102, 0.22418845, 0.2338993, 0.036196917, -0.14207055, -0.08385065, -0.0578417, -0.1489791, -0.18417838, 0.059664845, 0.074323714, -0.039692216, 0.022420676, -0.22199757, 0.22108349, 0.13598752, 0.1033459, 0.14157274, 0.1458194, -0.0038865805, 0.19843584, -0.0069987476, -0.22124462, 0.1336234, 0.045414776, -0.042667776, 0.10737741, -0.088863626, 0.1167956, -0.19143228, -0.20576987, -0.1952787, 0.1150918, -0.21420288, 0.20840898, 0.014072955, -0.02259382, -0.16300294, -0.099808365, -0.115694866, 0.011092305, -0.17600793, -0.069786906, -0.0405943, -0.2361357, -0.21579956, 0.22001347, 0.060807977, 0.12833053};
float b5[] = {-0.19079188, 0.10154144, 0.08426125, 0.27710336, -0.06494375, 0.03514321, -0.12787564, 0.19390981};

static MicroNeuralNetwork mnn = {0};
mnn.num_layers = 6;

mnn.layers[0].input_size = 8;
mnn.layers[0].output_size = 16;
memcpy(mnn.layers[0].weights, w0, sizeof(w0));
memcpy(mnn.layers[0].biases, b0, sizeof(b0));

mnn.layers[1].input_size = 16;
mnn.layers[1].output_size = 8;
memcpy(mnn.layers[1].weights, w1, sizeof(w1));
memcpy(mnn.layers[1].biases, b1, sizeof(b1));

mnn.layers[2].input_size = 8;
mnn.layers[2].output_size = 1;
memcpy(mnn.layers[2].weights, w2, sizeof(w2));
memcpy(mnn.layers[2].biases, b2, sizeof(b2));

mnn.layers[3].input_size = 1;
mnn.layers[3].output_size = 8;
memcpy(mnn.layers[3].weights, w3, sizeof(w3));
memcpy(mnn.layers[3].biases, b3, sizeof(b3));

mnn.layers[4].input_size = 8;
mnn.layers[4].output_size = 16;
memcpy(mnn.layers[4].weights, w4, sizeof(w4));
memcpy(mnn.layers[4].biases, b4, sizeof(b4));

mnn.layers[5].input_size = 16;
mnn.layers[5].output_size = 8;
memcpy(mnn.layers[5].weights, w5, sizeof(w5));
memcpy(mnn.layers[5].biases, b5, sizeof(b5));

