#define MNN_MAX_PACKET_SIZE 1.0
#define MNN_MIN_PACKET_SIZE 0.0
#define MNN_MAX_TTL 1.0
#define MNN_MIN_TTL 0.0
#define MNN_MAX_PROTOCOL 1.0
#define MNN_MIN_PROTOCOL 0.0
#define MNN_MAX_SRC_PORT 1.0
#define MNN_MIN_SRC_PORT 0.0
#define MNN_MAX_DST_PORT 1.0
#define MNN_MIN_DST_PORT 0.0
#define MNN_MAX_TCP_FLAGS 1.0
#define MNN_MIN_TCP_FLAGS 0.0
#define MNN_MAX_PAYLOAD_SIZE 1.0
#define MNN_MIN_PAYLOAD_SIZE 0.0
#define MNN_MAX_TCP_WINDOW 1.0
#define MNN_MIN_TCP_WINDOW 0.0

/* Layer 0: 8 Inputs → 16 Outputs */
float w0[] = {-0.122670926, 0.16912991, 0.26520884, 0.13689148, -0.28066483, -0.2520422, -0.21165486, 0.2641138, 0.26421475, -0.11870609, -0.048642013, -0.25092924, -0.11245807, -0.071225055, -0.17174394, -0.06639562, 0.24906048, 0.12861793, 0.04023591, -0.2504484, -0.051348727, 0.29196998, -0.26123688, -0.2427889, -0.30872592, -0.3002044, 0.19146913, 0.34914714, -0.27738282, 0.2417303, -0.17078616, -0.037388258, -0.053918503, -0.30890247, -0.25407377, 0.3516506, 0.35130265, -0.12855926, 0.16171202, -0.15509686, -0.07316537, -0.30154064, 0.16018967, 0.0944389, -0.23761418, 0.19972894, 0.15506862, -0.27611986, -0.26022038, 0.1325714, -0.27051583, 0.26637828, -0.32694253, -0.22501376, -0.24403957, -0.243317, -0.2375049, -0.34156337, -0.27738416, -0.021698378, 0.08191716, -0.13778955, -0.11579425, 0.20760067, -0.13809262, -0.048172373, -0.10671152, 0.25513178, -0.10513481, -0.14557606, -0.14896403, -0.26237613, 0.18814112, 0.3054734, 0.094140634, -0.07295236, 0.32312065, -0.1931799, 0.10572954, 0.039705448, -0.12763123, 0.3512837, 0.11190233, 0.28713197, -0.039761674, -0.26564088, 0.27623743, 0.24069913, 0.0069845333, -0.1378373, -0.24683702, -0.2649973, -0.2498949, 0.32025898, -0.14833887, 0.24177109, 0.091500215, -0.16042908, -0.30369905, 0.31379014, -0.34563652, -0.34867698, -0.059059955, -0.30094096, 0.07299518, 0.30844396, 0.16558346, 0.18382841, 0.10003925, -0.06803378, 0.28946704, -0.1954231, -0.11844879, 0.19050236, 0.29265803, -0.082088485, -0.25681436, 0.30157584, -0.2771086, 0.22011165, -0.08531011, -0.17000677, 0.3089503, 0.13712549, -0.056775514, -0.004140717, 0.0677288, -0.014407563};
float b0[] = {0.27531877, -0.32957038, 0.31832916, -0.07570362, -0.10310367, 0.24325268, -0.026911605, -0.34263918, -0.2980204, 0.024910009, 0.22100778, -0.12461584, 0.25868103, 0.33107504, -0.1044095, -0.3380562};

/* Layer 1: 16 Inputs → 8 Outputs */
float w1[] = {-0.045997024, 0.0967845, -0.19508815, -0.23253137, 0.019534409, -0.11258182, 0.1827861, -0.109913796, 0.09811172, 0.022010744, -0.12927848, -0.024058312, 0.018236995, -0.23981938, -0.18690431, 0.23931572, 0.19384986, 0.13987458, -0.22718096, 0.09604648, -0.14178333, 0.14892063, -0.20778406, -0.19586682, 0.24713686, 0.009991616, 0.12704787, 0.17879319, 0.119923174, 0.097611785, -0.0908398, -0.052426696, 0.1413272, -0.2323086, -0.034903377, 0.1969563, -0.12529495, -0.22916007, 0.055634707, 0.07266018, -0.22290331, -0.20748213, 0.1419439, -0.068587005, -0.09227711, -0.010234922, 0.21870565, 0.02916184, -0.11600381, -0.24696705, 0.19445181, 0.061614454, 0.20713362, -0.15657365, 0.01814738, 0.041021258, -0.00767228, 0.034284323, -0.18990046, -0.12239224, -0.09350523, -0.18608573, 0.13687941, 0.18135971, -0.07700482, -0.22619858, 0.0014128387, -0.10954431, -0.15774879, -0.18817183, -0.15569285, 0.21197635, 0.1288527, 0.12021303, -0.07492763, 0.004998237, 0.05365306, -0.20084819, 0.018948853, -0.1324335, -0.0472714, -0.09440026, 0.22422126, 0.21586365, -0.18309653, 0.19700956, 0.1780388, 0.001291573, 0.014958113, 0.16053739, -0.01837352, -0.18563211, 0.17637208, -0.21277261, 0.037472397, -0.044633776, -0.064195365, -0.030639678, -0.18476963, -0.06959054, 0.21462917, -0.029510736, 0.24542117, -0.06226164, -0.11566332, -0.22577545, 0.057890832, 0.094794035, -0.19081119, 0.12758529, 0.2409522, 0.060473472, -0.17427912, 0.084205866, -0.008313298, 0.24065962, 0.13680837, -0.19433603, -0.24503618, 0.081912786, 0.20950857, -0.007066965, -0.13289347, 0.06714466, 0.16496965, 0.13616693, -0.064035416, -0.23799327};
float b1[] = {-0.206828, 0.24451977, -0.11255026, -0.17006192, 0.1836203, -0.05129525, 0.11142394, -0.0884974};

/* Layer 2: 8 Inputs → 2 Outputs */
float w2[] = {-0.18971321, -0.1969075, -0.085699715, 0.1251753, 0.33720753, 0.22980443, 0.20889516, 0.19278806, -0.068769075, 0.35021535, 0.12678497, -0.23249403, -0.34893185, 0.06007262, -0.080188595, -0.12252603};
float b2[] = {-0.17459601, -0.35345176};

/* Layer 3: 2 Inputs → 8 Outputs */
float w3[] = {-0.364725, -0.14153948, 0.6315382, -0.4536138, 0.4642939, 0.59226537, 0.5778522, 0.5463585, 0.23342973, -0.1055583, 0.25096408, 0.3900887, 0.4097702, 0.11155554, 0.004496394, 0.4986444};
float b3[] = {-0.45415276, 0.082767725, -0.55077416, 0.19076382, -0.23733287, -0.34182012, 0.60517776, 0.075735934};

/* Layer 4: 8 Inputs → 16 Outputs */
float w4[] = {0.23010856, 0.043321297, -0.31066287, 0.059621252, -0.16435084, 0.25489736, -0.24890444, -0.05014865, -0.32188407, 0.08980867, 0.16471115, 0.124411166, -0.2671402, 0.2036772, 0.09968127, -0.32642597, -0.12838373, 0.32846835, -0.22710146, 0.15941611, -0.29397288, 0.2707229, -0.34153518, -0.096343055, 0.23596849, -0.024395745, 0.095119454, 0.26900703, -0.04784746, -0.16318564, 0.31845406, -0.2891898, -0.25450265, -0.30922487, 0.32941183, -0.2843775, -0.17462409, 0.054970365, 0.03336527, -0.17641583, 0.07545078, 0.003044056, 0.28629667, 0.049582437, 0.2662408, 0.053273447, 0.15654616, 0.036119513, 0.32232878, 0.010512473, -0.0077920672, -0.30522653, 0.03576493, 0.09035167, -0.019522129, -0.21669759, -0.35325396, -0.34428668, 0.32357392, -0.14877301, -0.038274523, 0.0682309, 0.0016892878, 0.26306942, 0.19797394, -0.23624122, 0.28228942, -0.019992314, 0.30708754, 0.03173835, -0.091907315, -0.2425198, 0.09928617, 0.05954053, -0.23442085, 0.33784637, 0.3266717, 0.32674798, 0.19884144, -0.13642235, 0.32346824, 0.34153664, -0.054826938, -0.21193723, 0.01655309, -0.19601138, -0.2278075, 0.30562162, -0.102664836, 0.10960497, -0.071516626, 0.060542442, -0.30961066, -0.233132, 0.29418993, 0.22162402, 0.0993928, 0.287549, -0.3196309, -0.20327833, -0.06380734, 0.25861496, 0.12014873, -0.25572878, -0.1762566, 0.33291617, 0.021285338, -0.28457296, 0.05147087, 0.2330531, -0.054844093, -0.13379715, -0.25926617, 0.24870935, -0.01197236, -0.14545088, 0.29120475, -0.03325774, 0.08688316, 0.23139383, 0.00027513463, -0.07576769, -0.24951714, -0.0075066946, -0.107159205, -0.20160173, -0.03575204, 0.20509547};
float b4[] = {0.17307428, 0.22321624, -0.008295764, 0.30041584, 0.37966064, -0.18408011, 0.13335936, -0.17343381, -0.16681634, 0.11930128, -0.02486331, -0.21823686, -0.07072915, -0.28996, -0.34472603, 0.2786177};

/* Layer 5: 16 Inputs → 8 Outputs */
float w5[] = {0.10375054, -0.13740182, 0.012353897, 0.040855244, 0.077067934, -0.12167677, -0.045294616, -0.12561297, -0.15406707, -0.24319844, -0.14078322, -0.040079392, 0.14925465, -0.15619588, 0.016703576, 0.058200225, 0.0055063907, 0.05347054, 0.10585901, 0.035014138, 0.037245966, 0.07604331, 0.23492303, 0.21216509, 0.015934616, 0.16110405, 0.21991652, 0.10634314, 0.053664833, 0.15487471, -0.047960818, 0.12657434, -0.03781211, 0.26922777, 0.035051674, -0.046446424, 0.18504655, 0.096327335, 0.122816585, -0.010908961, -0.24689385, -0.11351178, -0.22551614, -0.07170307, 0.0031039119, 0.11436236, 0.22551647, -0.14992847, 0.2178071, 0.16933183, -0.07037175, 0.13584529, 0.21365422, 0.15410799, -0.00809529, 0.14705288, 0.07560739, 0.24609303, 0.042219102, -0.13651776, 0.006863296, 0.21878225, -0.21286419, -0.08240564, 0.09287326, -0.18516621, 0.07084191, 0.11539067, 0.2370064, 0.18484065, -0.05828342, -0.109236956, 0.005610496, 0.2452497, -0.006188035, -0.21570483, -0.1006608, 0.2290749, 0.13815606, -0.14647979, -0.097489804, -0.09862546, -0.14891943, 0.06816018, 0.017713191, -0.07582304, 0.18752387, -0.09510109, -0.03679222, -0.04626082, -0.23560956, -0.18204857, -0.06304547, -0.12077659, 0.1769484, 0.014603008, -0.0452859, 0.20681949, 0.007814884, -0.18981612, -0.040080618, -0.18413335, -0.19373043, -0.076467365, -0.1671699, 0.05795122, 0.1470153, 0.003862549, 0.20042744, 0.024470657, -0.053105652, -0.18574823, -0.0015769004, -0.18225665, 0.07591677, -0.13296464, -0.010462218, -0.0072271824, -0.1251531, 0.039181292, 0.045075744, 0.052094534, -0.024701953, 0.24561127, -0.18655214, -0.035409838, 0.10293102, -0.0056353235};
float b5[] = {0.036935817, 0.09438564, -0.16753705, 0.101864114, -0.11200455, 0.22588754, 0.17375411, -0.00989359};

static MicroNeuralNetwork mnn = {0};
mnn.num_layers = 6;

mnn.layers[0].input_size = 8;
mnn.layers[0].output_size = 16;
memcpy(mnn.layers[0].weights, w0, sizeof(w0));
memcpy(mnn.layers[0].biases, b0, sizeof(b0));

mnn.layers[1].input_size = 16;
mnn.layers[1].output_size = 8;
memcpy(mnn.layers[1].weights, w1, sizeof(w1));
memcpy(mnn.layers[1].biases, b1, sizeof(b1));

mnn.layers[2].input_size = 8;
mnn.layers[2].output_size = 2;
memcpy(mnn.layers[2].weights, w2, sizeof(w2));
memcpy(mnn.layers[2].biases, b2, sizeof(b2));

mnn.layers[3].input_size = 2;
mnn.layers[3].output_size = 8;
memcpy(mnn.layers[3].weights, w3, sizeof(w3));
memcpy(mnn.layers[3].biases, b3, sizeof(b3));

mnn.layers[4].input_size = 8;
mnn.layers[4].output_size = 16;
memcpy(mnn.layers[4].weights, w4, sizeof(w4));
memcpy(mnn.layers[4].biases, b4, sizeof(b4));

mnn.layers[5].input_size = 16;
mnn.layers[5].output_size = 8;
memcpy(mnn.layers[5].weights, w5, sizeof(w5));
memcpy(mnn.layers[5].biases, b5, sizeof(b5));

