#define MNN_MAX_PACKET_SIZE 1
#define MNN_MIN_PACKET_SIZE 0
#define MNN_MAX_TTL 1
#define MNN_MIN_TTL 0
#define MNN_MAX_PROTOCOL 1
#define MNN_MIN_PROTOCOL 0
#define MNN_MAX_SRC_PORT 1
#define MNN_MIN_SRC_PORT 0
#define MNN_MAX_DST_PORT 1
#define MNN_MIN_DST_PORT 0
#define MNN_MAX_TCP_FLAGS 1
#define MNN_MIN_TCP_FLAGS 0
#define MNN_MAX_PAYLOAD_SIZE 1
#define MNN_MIN_PAYLOAD_SIZE 0
#define MNN_MAX_TCP_WINDOW 1
#define MNN_MIN_TCP_WINDOW 0

/* Layer 0: 8 Inputs → 16 Outputs */
float w0[] = {0.34243205, -0.114113644, 0.18943393, -0.21533899, -0.1187989, 0.19401467, -0.20459977, -0.085751094, -0.32285556, 0.19315073, 0.16852878, -0.32864028, 0.16014774, 0.20073901, -0.34188506, -0.15802437, 0.19736168, 0.30833897, 0.3009344, -0.29775792, 0.051383782, -0.03730419, 0.013927214, -0.27010238, 0.2665691, -0.077402346, -0.19528468, 0.19720885, -0.24079463, 0.340699, 0.009880443, -0.04335077, -0.006701296, -0.17841065, 0.28969988, 0.10193607, 0.1558447, -0.074345335, 0.29551756, 0.12600264, -0.18428296, 0.113569796, -0.080604345, 0.15546902, -0.27881578, -0.060989987, 0.24582806, -0.024307262, -0.16684361, -0.049344055, 0.17714135, -0.27800414, 0.16631833, 0.024495345, 0.08568534, -0.33180758, -0.16119564, -0.12953618, 0.19242729, -0.039954707, -0.227108, 0.09855155, 0.00454343, -0.071069784, -0.20258625, 0.143071, 0.24143453, -0.29716322, -0.17788675, 0.31374732, -0.046471745, 0.14594181, -0.120696366, -0.17298903, 0.076645724, -0.0071407612, 0.26827, 0.19003563, 0.2840223, -0.2759584, -0.29830372, 0.0053706695, 0.14430857, -0.073987946, 0.023593923, -0.23206526, -0.19087254, 0.11634005, 0.20928334, 0.2611548, 0.3153541, -0.2764088, -0.09289528, -0.3314489, -0.34166247, 0.16332245, 0.29074308, -0.27356002, 0.18611977, 0.016257009, -0.03855914, -0.10860627, -0.15174791, -0.05538863, 0.06969032, -0.2268748, 0.27441207, 0.31672537, -0.31835064, -0.0699978, 0.17085215, 0.1523807, -0.2941583, 0.21133523, 0.31146014, -0.24862471, 0.28552213, -0.14133653, 0.17994803, -0.30500928, 0.34547523, -0.09686101, -0.19714357, 0.17548548, 0.34230614, 0.3023039, 0.28702193, -0.06612845};
float b0[] = {-0.20158061, 0.33454955, 0.08651477, -0.09601956, -0.10598705, 0.16458935, -0.08615939, -0.2783806, 0.06016231, 0.04063283, -0.15427108, -0.16896687, -0.22275962, -0.20731018, 0.28973714, 0.33914855};

/* Layer 1: 16 Inputs → 8 Outputs */
float w1[] = {0.002988845, -0.23687698, -0.024143413, -0.19345301, 0.02860789, -0.15280959, 0.04717088, -0.19129518, 0.048275486, 0.13443983, 0.22452733, 0.03297948, 0.09698221, 0.14105928, -0.12582754, 0.13854384, 0.122475326, 0.2171894, 0.18600427, -0.062017683, -0.15083042, -0.2399374, 0.1370686, -0.12772477, -0.110682376, -0.14418301, -0.1448412, 0.008819729, 0.24403757, 0.14649999, -0.24277893, 0.0431377, 0.12966082, -0.07904422, 0.19858079, -0.00027611418, -0.22476262, 0.010674337, -0.077773996, 0.1506123, -0.14194871, -0.040446833, 0.029399395, -0.2487536, 0.13592055, -0.14950788, -0.06091042, -0.19204332, 0.058410615, -0.0863322, -0.18964061, 0.09356606, 0.18325794, 0.16582611, -0.21134165, -0.07270312, -0.09881264, -0.14438784, 0.16899067, -0.03674236, 0.20425719, 0.04430601, -0.21156621, -0.22121096, 0.13487583, -0.23521474, -0.0966424, 0.21551779, -0.15487418, -0.14380668, -0.028601281, 0.14219975, 0.11367072, 0.17837614, -0.06902459, -0.133232, -0.2423419, 0.10477192, -0.21496497, 0.1544008, -0.2336013, 0.08746404, 0.14049187, -0.10781884, 0.11678192, -0.19363964, -0.03870409, 0.07825762, -0.18420795, 0.05283878, 0.21029067, -0.15969583, 0.025480956, 0.059180945, -0.072347395, 0.0015379204, -0.067183584, -0.002395858, -0.0231076, 0.21404305, 0.24255867, -0.0469902, 0.053834572, -0.0891155, -0.0565956, -0.17820577, 0.11785504, 0.122564316, -0.20817801, -0.2366404, -0.20421764, -0.029106705, 0.13779041, -0.10432023, 0.09257004, -0.16344053, -0.060878187, -0.20673382, -0.12626576, 0.17085862, 0.054558396, -0.14972696, -0.035277575, -0.095785916, -0.19314131, 0.05659032, -0.09118754, -0.116494834};
float b1[] = {0.2392939, -0.0074514966, 0.2453347, -0.10985017, 0.0044944864, -0.01958612, 0.2166546, 0.10829842};

/* Layer 2: 8 Inputs → 2 Outputs */
float w2[] = {0.31704667, -0.11676471, -0.28376177, -0.12285895, 0.12565942, 0.31388628, 0.18804747, 0.20892896, -0.2447373, -0.27651852, -0.020678129, -0.15355323, 0.019710016, -0.23770101, -0.20566435, -0.21758032};
float b2[] = {0.16828704, -0.14755245};

/* Layer 3: 2 Inputs → 8 Outputs */
float w3[] = {-0.0013840782, 0.6272274, 0.13961785, 0.17308176, 0.42908603, -0.29747093, -0.67194635, 0.31165284, -0.029832067, -0.6793085, -0.24934623, -0.4958204, -0.43488425, -0.49938223, -0.30569455, -0.680687};
float b3[] = {0.6176908, -0.331115, 0.11965146, -0.6269321, 0.42518744, -0.16286764, 0.12635556, 0.45242992};

/* Layer 4: 8 Inputs → 16 Outputs */
float w4[] = {0.04928229, 0.14801715, 0.28880078, -0.051319983, -0.21218246, 0.118639074, -0.15816587, -0.25778937, -0.08252558, -0.34555116, 0.25572932, 0.28893897, -0.12620999, -0.01606309, 0.056703113, 0.20199461, 0.022534583, 0.320637, -0.2663232, 0.3175435, 0.22910094, -0.105021976, -0.065308034, -0.24555844, 0.06279129, -0.29283544, 0.35165748, -0.27628037, 0.33917376, -0.10993103, 0.02902055, -0.053482782, -0.0060771606, -0.16837017, 0.13273871, 0.0895626, 0.2710115, -0.34261742, -0.072956346, -0.32413346, -0.34397268, 0.3355421, 0.13692006, 0.14176165, -0.18867804, -0.105506375, -0.11777296, 0.062459607, 0.33361003, 0.21468054, 0.16703123, 0.2162543, -0.24053091, -0.31376603, -0.022397693, 0.012837152, 0.13741258, -0.232821, -0.25736287, 0.25333083, 0.041223932, -0.24563305, -0.23152816, 0.14135341, -0.26373693, -0.23493841, 0.0992816, -0.16070458, 0.1292999, -0.10626923, -0.07925516, 0.16750398, -0.06671294, 0.28860885, -0.011568467, -0.3382832, -0.19350255, -0.28848186, -0.16231097, -0.19552994, -0.17003685, 0.28242755, -0.2600501, -0.23651876, 0.014266605, 0.026773069, 0.33062327, 0.19841059, 0.053573787, -0.03663345, 0.03444742, -0.089288436, -0.03537621, -0.16502708, -0.34536496, 0.2039684, 0.13796924, -0.24165654, -0.058379784, 0.066479236, 0.34808606, -0.17132807, 0.2109911, 0.25550643, 0.03897437, -0.18740112, -0.01446935, -0.26074463, -0.08739385, -0.012272699, 0.06230636, -0.14944282, -0.1867421, -0.11745252, 0.081110075, -0.3160326, 0.18582202, -0.1689552, 0.06834668, -0.30530593, -0.086662516, -0.09616768, -0.00926021, 0.20996203, -0.31020194, -0.01414406, 0.14600511, 0.11175199};
float b4[] = {0.081140265, 0.05904177, 0.042822942, 0.3043031, 0.21007814, -0.29727477, 0.14053379, 0.24479666, 0.15467148, -0.1629371, 0.2245777, -0.15972534, 0.23008084, -0.14076726, 0.12014864, -0.23131412};

/* Layer 5: 16 Inputs → 8 Outputs */
float w5[] = {-0.17279086, -0.029961733, 0.14846365, -0.15306035, 0.048968546, -0.032284915, 0.25344044, -0.021179317, -0.1444007, 0.15956396, 0.14275055, 0.09531015, 0.048248723, -0.092142075, -0.19804867, -0.11882764, 0.2080069, 0.14416277, -0.021544514, -0.22813329, -0.057777334, 0.087536454, 0.03932342, -0.090801895, -0.046876587, 0.18057042, 0.16068843, -0.042458326, 0.123143494, 0.02810049, -0.056496494, 0.12459162, -0.10088821, -0.22793642, -0.15255749, 0.20730127, 0.02636169, 0.15913555, -0.045205526, 0.24874295, -0.20487298, 0.23381418, 0.17905124, -0.065907985, 0.09129308, -0.17936859, 0.17770576, 0.09166172, -0.22381711, -0.021058584, -0.20431085, -0.1849011, 0.19649142, 0.14873868, -0.22045869, 0.11459078, 0.06243208, -0.23324046, -0.13768633, 0.24339756, 0.10301192, 0.17700371, -0.08479396, -0.23442245, -0.16499127, 0.20571922, -0.07536647, 0.26591527, -0.167085, -0.031006753, 0.2467845, 0.19013317, -0.10208086, -0.03038621, -0.2232549, 0.13963845, -0.09449296, 0.04789591, -0.24771923, -0.0002488494, -0.23613466, 0.0009022713, -0.10807075, 0.0005418392, 0.086583704, 0.17913932, -0.114420354, 0.21269071, 0.19191426, 0.24047688, 0.19449647, 0.05800295, 0.14775217, -0.029610664, -0.14900374, 0.21141323, -0.018465273, -0.022901695, 0.026111742, 0.01303551, -0.20131008, 0.21598038, -0.08202598, 0.21489233, -0.10684894, 0.16536397, 0.1509758, -0.073948324, -0.07082375, 0.09416404, -0.20731413, 0.20234257, 0.116820335, -0.03348686, 0.052784942, 0.036588673, 0.21497917, -0.018710881, 0.11090455, 0.015129312, -0.043735918, -0.17781118, 0.08603496, 0.14138499, 0.13652089, -0.1623958, 0.07228704, 0.2177177};
float b5[] = {-0.08223067, 0.100820236, -0.07755406, 0.27641422, 0.009114691, -0.04861916, -0.025437439, -0.019916078};

static MicroNeuralNetwork mnn = {0};
mnn.num_layers = 6;

mnn.layers[0].input_size = 8;
mnn.layers[0].output_size = 16;
memcpy(mnn.layers[0].weights, w0, sizeof(w0));
memcpy(mnn.layers[0].biases, b0, sizeof(b0));

mnn.layers[1].input_size = 16;
mnn.layers[1].output_size = 8;
memcpy(mnn.layers[1].weights, w1, sizeof(w1));
memcpy(mnn.layers[1].biases, b1, sizeof(b1));

mnn.layers[2].input_size = 8;
mnn.layers[2].output_size = 2;
memcpy(mnn.layers[2].weights, w2, sizeof(w2));
memcpy(mnn.layers[2].biases, b2, sizeof(b2));

mnn.layers[3].input_size = 2;
mnn.layers[3].output_size = 8;
memcpy(mnn.layers[3].weights, w3, sizeof(w3));
memcpy(mnn.layers[3].biases, b3, sizeof(b3));

mnn.layers[4].input_size = 8;
mnn.layers[4].output_size = 16;
memcpy(mnn.layers[4].weights, w4, sizeof(w4));
memcpy(mnn.layers[4].biases, b4, sizeof(b4));

mnn.layers[5].input_size = 16;
mnn.layers[5].output_size = 8;
memcpy(mnn.layers[5].weights, w5, sizeof(w5));
memcpy(mnn.layers[5].biases, b5, sizeof(b5));

