#define MNN_MAX_PACKET_SIZE 1518
#define MNN_MIN_PACKET_SIZE 0
#define MNN_MAX_TTL 255
#define MNN_MIN_TTL 0
#define MNN_MAX_PROTOCOL 255
#define MNN_MIN_PROTOCOL 0
#define MNN_MAX_SRC_PORT 65535
#define MNN_MIN_SRC_PORT 0
#define MNN_MAX_DST_PORT 65535
#define MNN_MIN_DST_PORT 0
#define MNN_MAX_TCP_FLAGS 255
#define MNN_MIN_TCP_FLAGS 0
#define MNN_MAX_PAYLOAD_SIZE 1500
#define MNN_MIN_PAYLOAD_SIZE 0
#define MNN_MAX_TCP_WINDOW 65535
#define MNN_MIN_TCP_WINDOW 0

/* Layer 0: 8 Inputs → 16 Outputs */
float w0[] = {-0.12850422, 0.125555, 0.02516702, -0.06650507, 0.15773356, 0.11002759, 0.13058421, -0.2243671, -0.28577355, 0.2604083, 0.2564193, 0.296488, -0.03389454, 0.22487172, -0.14698073, 0.057167225, -0.24537313, -0.107897535, 0.3516328, -0.13786946, 0.09442651, -0.2402338, -0.018155556, 0.31013316, 0.08738517, -0.105452344, 0.29892424, 0.13245764, -0.34882745, 0.23546985, -0.019226465, -0.16224189, -0.14173627, 0.03919269, 0.24562828, -0.0015101637, 0.21541215, -0.0034216077, -0.13319087, 0.029756939, 0.2807273, -0.2945246, -0.06069496, 0.01732189, 0.18287711, 0.10363598, -0.29418048, 0.32713675, 0.2825035, -0.24555685, 0.3226224, 0.07567875, 0.10058113, 0.035840333, 0.34895685, 0.00032815535, 0.16828364, 0.03057307, -0.071672946, 0.33934543, 0.01148569, -0.23687531, -0.168963, -0.11356144, -0.20357564, -0.27957007, 0.056637272, -0.035886988, 0.1404156, -0.10687758, -0.33103958, 0.19321012, 0.29186717, 0.01621562, -0.11581115, 0.2358946, -0.27153376, 0.022807892, 0.13963251, 0.19806877, -0.11948935, 0.12655291, 0.25560474, -0.33556756, -0.12577218, -0.033738803, 0.06033511, 0.23365395, -0.2621319, -0.24882707, 0.004369069, 0.12747833, 0.24607563, -0.2579365, 0.16393425, 0.33414438, -0.054106858, -0.081224225, -0.06379292, 0.31226772, -0.25070348, -0.3009619, -0.06102594, -0.12815142, 0.23164979, 0.032212667, 0.1147614, 0.34330323, -0.30437192, 0.0020571034, -0.02510911, -0.05541628, 0.30119157, 0.14206848, 0.033024374, -0.34850058, -0.27291185, -0.33603388, 0.092708774, 0.27869305, 0.29906553, 0.28628698, 0.07963061, 0.3500313, 0.15677789, 0.0970639, 0.27507895, 0.22302198};
float b0[] = {0.07572486, -0.19789807, 0.29861823, -0.34953552, 0.113681346, -0.109995514, 0.25862208, 0.073290795, 0.18609999, -0.20708512, 0.24525723, 0.3402821, 0.10012932, 0.021295791, 0.29672956, -0.08134734};

/* Layer 1: 16 Inputs → 8 Outputs */
float w1[] = {-0.11240819, -0.030750751, 0.167728, -0.1138393, 0.14043856, -0.18358585, 0.16376454, 0.03421849, -0.12898976, 0.1734477, -0.07912293, -0.02188015, 0.049886763, 0.01824662, 0.13808826, -0.07703793, -0.17220038, 0.22716683, 0.17485872, 0.07328659, -0.07797086, -0.19458663, -0.11599773, 0.055879503, 0.16637558, -0.18601122, 0.053327918, 0.22000393, -0.084949434, -0.24079224, 0.1861468, -0.040141195, -0.16655087, 0.086981386, -0.025490403, 0.11284879, -0.10010925, 0.08776888, 0.020650357, -0.11951554, -0.10666534, 0.18689945, -0.051763624, -0.21621066, -0.0062089264, -0.12174982, 0.01310426, -0.17579699, 0.1309453, 0.19008365, 0.15120184, -0.14842337, -0.070299655, 0.17696768, 0.075787544, -0.2273308, 0.23174495, 0.042118967, -0.06341946, -0.012059599, -0.08677736, 0.22225365, -0.2376352, 0.06707913, 0.1009886, 0.24868631, 0.06127903, -0.05289659, 0.17279986, -0.042517602, -0.041971654, 0.20537812, -0.063346416, 0.009993643, -0.22608086, -0.10213968, 0.19937205, 0.031663984, 0.21910915, 0.16146776, 0.19675559, -0.14115366, 0.057707787, -0.04739797, 0.045993835, -0.18398643, -0.0006609857, -0.21708158, 0.009325355, -0.20698214, -0.22210464, 0.14619038, 0.2264719, -0.16363725, -0.12894827, -0.1916436, 0.24327502, -0.02035907, -0.18171352, -0.031325012, -0.036316514, 0.06445664, 0.23421663, 0.104171425, -0.08323151, -0.07422194, -0.1052486, -0.06499669, 0.025600553, -0.09190267, -0.15638536, -0.012539744, 0.016632825, 0.098949194, -0.02613014, 0.01578793, -0.05685255, -0.18601075, 0.093018144, 0.10654816, -0.10762453, 0.15410477, -0.14240462, 0.008117318, -0.17480278, -0.14745933, 0.024151504, -0.21454668};
float b1[] = {-0.18836093, -0.017433673, 0.12610692, 0.21662363, 0.22331607, 0.16380572, -0.18455908, -0.0040079057};

/* Layer 2: 8 Inputs → 1 Outputs */
float w2[] = {0.21440801, 0.14149173, -0.22403026, -0.27452388, -0.2982841, -0.16095991, -0.16431767, -0.22260414};
float b2[] = {0.13892616};

/* Layer 3: 1 Inputs → 8 Outputs */
float w3[] = {-0.89989245, -0.66914034, 0.46761906, 0.22764862, 0.032045007, 0.5497862, 0.63787305, -0.03883016};
float b3[] = {-0.19402254, 0.5770198, -0.58534694, 0.29661155, 0.17845838, -0.4352033, 0.65510553, 0.07398563};

/* Layer 4: 8 Inputs → 16 Outputs */
float w4[] = {0.13432027, -0.12511572, -0.29351917, 0.13627154, 0.06727671, 0.27682078, 0.32298684, 0.15562709, 0.30095714, -0.32749653, 0.19464304, 0.022410743, -0.073539086, 0.14417973, -0.2284016, 0.08481682, 0.27501425, -0.3247164, -0.114089705, 0.097942956, -0.04985243, -0.2701204, -0.024760345, -0.16355932, -0.1451454, 0.06850543, -0.037999514, -0.29924178, -0.14283079, 0.34928483, 0.37006956, -0.12762731, 0.03143194, 0.16058157, 0.009627014, 0.28396314, 0.17557412, -0.268233, 0.13950188, 0.017376278, 0.15334271, 0.039839517, -0.20381512, -0.16897464, -0.12586924, -0.22462259, -0.028077936, -0.22238956, -0.26901388, -0.32815987, 0.0048064687, 0.29057854, 0.26720116, -0.1762246, 0.009996516, -0.30757502, 0.12293527, 0.28940147, -0.14232907, 0.038709167, 0.12409067, -0.18382879, 0.0653558, -0.3162335, -0.32905155, 0.10264663, -0.2923648, 0.12739432, -0.054582305, 0.17473961, -0.060737465, 0.16028485, -0.2940658, -0.17133777, -0.34744543, -0.28945354, 0.16894817, -0.09145689, -0.012222712, -0.19969821, 0.059530735, 0.15391307, 0.103135444, -0.22469121, -0.03049328, -0.21651945, -0.18191215, -0.30706105, -0.24224494, -0.3236875, 0.1525721, 0.22318263, 0.32210186, -0.08366423, 0.30214208, 0.21643095, -0.25427088, -0.1510905, -0.00020517086, -0.101281576, 0.16169019, 0.045980863, 0.054477666, -0.2817672, -0.16941524, -0.21661271, 0.16968544, 0.092184305, 0.25393814, -0.034081373, 0.2912129, 0.020009048, 0.025689136, -0.25073317, 0.2557309, 0.10335423, -0.2547234, -0.1318165, -0.122333206, -0.13626724, 0.018114125, -0.1902692, 0.1795854, -0.026636302, 0.053430445, -0.19623744, 0.2171989, 0.14606495};
float b4[] = {-0.15986758, 0.153478, 0.08570435, 0.07772964, 0.3698406, -0.031432234, -0.30262125, 0.22401766, 0.3038601, 0.06763094, 0.1553087, 0.38324592, 0.015596863, -0.14630634, 0.009392509, -0.20381714};

/* Layer 5: 16 Inputs → 8 Outputs */
float w5[] = {0.05607399, -0.012539774, 0.07563311, 0.0322687, 0.13879739, -0.23340863, 0.049473286, -0.12587026, 0.24814774, -0.057873726, 0.18254943, -0.08971252, 0.030221164, 0.13419247, -0.16986394, -0.099396795, -0.092227966, 0.22308713, 0.16464758, 0.19023976, 0.10000126, 0.023258954, -0.15599546, -0.10571162, -0.053951267, 0.20259306, 0.09598402, -0.04521425, -0.18418866, -0.12951353, -0.19241837, -0.0010043383, 0.0616322, -0.22763422, -0.11560863, 0.10438882, -0.07865628, 0.23402423, -0.07160464, 0.23193389, 0.12201248, -0.040749848, -0.056914903, 0.08687947, 0.012455612, -0.027890116, -0.1981906, 0.07294819, -0.1597358, -0.18850252, 0.20742798, -0.22396888, 0.24535413, -0.11516297, -0.03328058, -0.016677799, 0.13834667, 0.17870006, 0.19841325, 0.1686359, -0.014235467, -0.03207028, 0.1479879, 0.12323505, 0.20554602, 0.23385966, -0.051247835, 0.11372251, 0.24098513, -0.03771305, 0.05944869, -0.14979126, 0.116054095, 0.08092272, -0.13274452, 0.14031285, -0.100444764, 0.088055015, 0.035336405, -0.19210151, 0.14661427, -0.15308678, 0.0016373694, 0.057363804, 0.27637628, -0.012455165, -0.05457452, -0.026060449, -0.13819212, 0.1162222, 0.01913348, 0.19238813, -0.086420536, 0.18792143, 0.17763138, 0.021398753, 0.0577236, -0.0787991, -0.2356169, -0.16410801, 0.12989865, -0.12508595, 0.017255038, -0.11292755, -0.12627605, 0.11018732, 0.07771246, -0.08838113, -0.22584277, -0.15812153, -0.18978757, 0.00969395, -0.13531017, 0.039268523, 0.0090774, -0.21792856, -0.2013482, 0.10994291, -0.0368087, 0.088375285, 0.14418079, -0.21430025, -0.036618765, -0.06508486, 0.08927077, -0.24161145, -0.17572546, -0.04971674};
float b5[] = {-0.05635046, 0.09171792, -0.039280955, 0.106177926, 0.1680293, 0.25122473, 0.115014955, 0.1717502};

static MicroNeuralNetwork mnn = {0};
mnn.num_layers = 6;

mnn.layers[0].input_size = 8;
mnn.layers[0].output_size = 16;
memcpy(mnn.layers[0].weights, w0, sizeof(w0));
memcpy(mnn.layers[0].biases, b0, sizeof(b0));

mnn.layers[1].input_size = 16;
mnn.layers[1].output_size = 8;
memcpy(mnn.layers[1].weights, w1, sizeof(w1));
memcpy(mnn.layers[1].biases, b1, sizeof(b1));

mnn.layers[2].input_size = 8;
mnn.layers[2].output_size = 1;
memcpy(mnn.layers[2].weights, w2, sizeof(w2));
memcpy(mnn.layers[2].biases, b2, sizeof(b2));

mnn.layers[3].input_size = 1;
mnn.layers[3].output_size = 8;
memcpy(mnn.layers[3].weights, w3, sizeof(w3));
memcpy(mnn.layers[3].biases, b3, sizeof(b3));

mnn.layers[4].input_size = 8;
mnn.layers[4].output_size = 16;
memcpy(mnn.layers[4].weights, w4, sizeof(w4));
memcpy(mnn.layers[4].biases, b4, sizeof(b4));

mnn.layers[5].input_size = 16;
mnn.layers[5].output_size = 8;
memcpy(mnn.layers[5].weights, w5, sizeof(w5));
memcpy(mnn.layers[5].biases, b5, sizeof(b5));

