#define MNN_MAX_PACKET_SIZE 1.0
#define MNN_MIN_PACKET_SIZE 0.0
#define MNN_MAX_TTL 1.0
#define MNN_MIN_TTL 0.0
#define MNN_MAX_PROTOCOL 1.0
#define MNN_MIN_PROTOCOL 0.0
#define MNN_MAX_SRC_PORT 1.0
#define MNN_MIN_SRC_PORT 0.0
#define MNN_MAX_DST_PORT 1.0
#define MNN_MIN_DST_PORT 0.0
#define MNN_MAX_TCP_FLAGS 1.0
#define MNN_MIN_TCP_FLAGS 0.0
#define MNN_MAX_PAYLOAD_SIZE 1.0
#define MNN_MIN_PAYLOAD_SIZE 0.0
#define MNN_MAX_TCP_WINDOW 1.0
#define MNN_MIN_TCP_WINDOW 0.0

/* Layer 0: 8 Inputs → 16 Outputs */
float w0[] = {-0.3086176, -0.17693481, 0.25558692, 0.31888798, -0.008958366, 0.14517976, 0.055369027, 0.1446122, -0.16233109, 0.2556908, 0.061031688, -0.1450183, -0.044177085, 0.34484532, 0.24196298, 0.009546843, -0.32549196, -0.302538, 0.07571698, -0.24780664, -0.062247906, -0.1789227, -0.303362, -0.2906895, 0.11568295, -0.10662608, 0.049811106, -0.05288204, 0.0055218143, 0.30017287, -0.32677588, 0.09112765, -0.097525574, -0.18064186, 0.10019198, 0.32802477, -0.1477208, 0.108770505, 0.20189318, -0.15132843, 0.2584315, 0.32829937, 0.26957685, -0.04601547, 0.26283282, 0.26374355, -0.040015783, 0.20881352, -0.31618902, -0.057947703, -0.0055088457, -0.25556606, 0.07968022, -0.06385517, -0.012502567, -0.08202936, -0.027982816, -0.19594495, 0.23454951, -0.17468111, -0.09106466, 0.3389983, -0.15307853, 0.29446882, -0.19135171, 0.112926066, 0.14554393, -0.17342134, -0.33630288, -0.2481725, -0.294822, 0.22933128, 0.17756201, 0.15231162, -0.3451379, -0.328529, 0.18556681, 0.24446023, 0.086871564, -0.34843907, -0.2691974, 0.022940693, 0.13928564, -0.17747368, 0.016300328, 0.07299787, 0.3447239, -0.07432664, 0.18013845, 0.13642654, -0.083744615, -0.25415203, 0.146426, 0.015371194, 0.2507641, -0.13257705, -0.1848938, 0.22336152, 0.29631338, -0.17681068, 0.323088, 0.13913222, -0.19966917, -0.011520288, -0.053496886, -0.13033995, 0.34110102, -0.104027554, 0.03278084, 0.13512968, 0.103200234, -0.29666016, 0.28212112, -0.21464072, 0.14379019, 0.28070116, -0.25697985, 0.26144677, -0.17516585, -0.21613784, 0.24936616, 0.1060619, 0.20140642, -0.27992654, 0.16159187, -0.26029262, 0.33305612, -0.1433351};
float b0[] = {-0.019426282, 0.048714895, 0.23002419, -0.10902096, 0.13294514, 0.037601225, -0.117941715, 0.012348441, 0.18634257, 0.33622175, -0.11596951, -0.14262222, 0.18797302, 0.2787282, -0.22628316, -0.06650476};

/* Layer 1: 16 Inputs → 8 Outputs */
float w1[] = {0.033517767, 0.1862725, -0.041332006, -0.0018691694, 0.20725404, 0.062297348, -0.16346377, -0.19579755, 0.02571705, -0.122983344, 0.0026041174, -0.046571195, 0.18484013, 0.063974775, -0.08167486, 0.124448985, 0.16030985, -0.24511328, -0.067442596, 0.15999949, 0.057255417, -0.08521986, 0.089108616, -0.010188073, -0.06889728, -0.10544494, -0.21407154, 0.1575734, -0.118586004, -0.1822001, -0.028823912, -0.12431729, 0.10849628, 0.16194326, -0.104074925, 0.0383659, -0.10595367, -0.091720335, -0.010336995, -0.020609342, -0.22794002, 0.19538994, 0.07138044, -0.041915268, 0.1902068, 0.009570011, 0.1597668, 0.0076900003, 0.039828565, 0.081030115, 0.06191647, -0.1415923, 0.07984679, 0.18691829, 0.12150383, -0.024095789, 0.115258485, -0.16569938, 0.07848519, 0.11339405, 0.24115889, -0.13891886, 0.20175979, 0.18015617, 0.24764642, -0.22479978, 0.22371474, 0.18719721, -0.0551987, -0.002314061, 0.04669997, -0.07550746, 0.17771915, -0.13201967, -0.24516663, -0.06606352, 0.031915396, -0.24447405, -0.10351333, 0.15810737, 0.19139804, -0.17394619, -0.2175176, -0.19783017, 0.05916958, 0.06958943, 0.0043809116, 0.14044179, 0.070738316, -0.005361254, 0.0626865, -0.01492517, -0.025256662, -0.1280258, 0.121520795, 0.12996185, -0.12647212, -0.005943656, -0.11688432, 0.10158095, -0.04634872, -0.14615527, -0.034417033, 0.23567209, -0.1779637, -0.094707936, -0.23905408, -0.0012096465, -0.13803557, -0.10335845, 0.17704093, -0.24193469, 0.15368536, -0.21321058, 0.07890108, 0.015119746, 0.123883784, 0.17889208, 0.12438598, 0.07335535, 0.13237745, -0.090256035, -0.0908882, 0.114869505, -0.10639316, -0.16434303, -0.13672471, -0.20878464};
float b1[] = {0.018754426, -0.17966059, -0.13253373, -0.112518735, -0.06911352, 0.19129641, -0.19186664, 0.029190877};

/* Layer 2: 8 Inputs → 2 Outputs */
float w2[] = {-0.157802, -0.06076176, -0.24099268, 0.33574826, -0.040633608, 0.3174504, 0.10812727, -0.011746631, -0.13593888, 0.27501738, -0.27780387, 0.15035884, -0.0139850825, -0.26385272, -0.0636613, 0.009814104};
float b2[] = {0.27536783, -0.21323043};

/* Layer 3: 2 Inputs → 8 Outputs */
float w3[] = {0.6800166, -0.41231528, -0.269535, 0.16521025, -0.55285645, 0.52605, -0.6652173, -0.5457051, 0.434184, -0.31914064, 0.040975865, -0.34900457, -0.17977425, 0.66707146, 0.15250677, -0.10316621};
float b3[] = {0.6271156, -0.3891426, 0.35694265, -0.5270795, 0.52135175, 0.18768466, -0.49028215, -0.3487929};

/* Layer 4: 8 Inputs → 16 Outputs */
float w4[] = {0.2294723, 0.23862462, -0.22076215, -0.10006357, -0.022066414, 0.2966266, 0.22158667, 0.22326715, 0.20329355, 0.17928472, -0.3034958, -0.31996033, 0.2671389, 0.28400117, -0.08000677, -0.0818002, 0.13186517, 0.33811647, 0.091650344, 0.25212386, 0.12140969, 0.13221672, 0.13739729, -0.28937376, -0.13403423, -0.11762819, -0.20469573, -0.07766147, 0.02939102, -0.064397514, 0.017046545, -0.27000362, -0.17228565, 0.1922066, 0.015078161, -0.32839057, -0.2134259, 0.04897746, -0.3330769, -0.115514144, -0.2138552, -0.18371136, -0.0026003341, -0.15038092, -0.24068315, 0.2503234, 0.034034465, -0.053854316, -0.26439202, -0.34912005, 0.03655597, 0.2997861, -0.0735454, 0.225695, 0.03628009, -0.28128436, -0.14425041, -0.16998081, -0.19205762, 0.119157396, -0.11481109, -0.22901058, -0.35097784, -0.34761068, 0.077955924, -0.040408712, 0.030235823, -0.26061165, 0.26740006, 0.062254928, 0.3321656, -0.34477362, 0.27568704, 0.0692659, 0.3027325, 0.20713156, 0.110209875, -0.32379457, -0.29405457, 0.22371681, -0.122059844, -0.22812605, 0.069200784, 0.14914593, 0.31161374, -0.06893391, -0.23031217, -0.112841524, -0.24065273, 0.17504504, 0.09604289, -0.12597954, 0.08353547, -0.25140497, -0.24300253, -0.012714566, -0.088533625, 0.16537365, 0.110514894, -0.14058548, -0.31653672, -0.29166302, 0.19981922, -0.21846579, -0.29844806, 0.0678885, -0.117819704, -0.078102365, -0.32098234, -0.33715564, 0.051076964, -0.22968687, -0.04049267, 0.3111333, 0.26312822, 0.08655918, -0.28927606, 0.11480291, -0.15145431, 0.26193932, 0.3386434, -0.18588483, -0.21740723, -0.026343128, -0.23656002, -0.16061185, 0.2625814, 0.057021525};
float b4[] = {0.074376635, 0.36598542, -0.069219865, -0.21983813, -0.21837546, -0.12004527, 0.3050568, -0.042221323, 0.14816438, 0.223704, -0.15271206, 0.16228636, -0.30972537, 0.23070367, 0.055611923, 0.06652978};

/* Layer 5: 16 Inputs → 8 Outputs */
float w5[] = {0.012903514, 0.15666333, 0.153624, 0.014229089, 0.14505434, -0.2225129, 0.074675836, 0.08914152, -0.1816057, -0.011806162, -0.21161857, 0.15248576, 0.1869891, -0.16903988, -0.20148739, -0.17826128, 0.10566825, -0.1273486, 0.19833732, 0.040423512, 0.10724893, -0.17063117, -0.24445786, 0.23279446, 0.003943475, 0.17070004, -0.10032642, -0.06266639, 0.12505364, -0.02287358, 0.08231905, 0.06896456, -0.02782426, -0.034565616, -0.04705181, -0.015966088, 0.1276494, -0.1316666, 0.18542041, 0.10232493, -0.07293082, 0.23145421, -0.017167032, -0.2170313, 0.16086909, 0.08761844, -0.22734645, 0.17671181, 0.16785777, 0.2962259, -0.10345767, -0.18121308, -0.07381928, 0.01622054, -0.08708085, -0.09692061, -0.14601207, -0.15453964, 0.22291133, 0.03210168, 0.10959178, 0.15782863, 0.17963499, -0.08613596, 0.115030766, -0.06592672, -0.09259736, 0.06953898, 0.17358595, -0.233125, -0.039997008, -0.15604836, 0.17511319, 0.2426156, 0.21823627, -0.018939866, -0.24462274, -0.072996676, 0.23114827, 0.24925552, 0.1303279, 0.14633942, 0.09906855, 0.21640438, 0.16535074, -0.11687043, 0.15930024, -0.09473479, 0.21201856, 0.1926966, 0.05791378, 0.14615461, -0.053098977, -0.09394276, 0.0718458, -0.07968098, 0.1448845, -0.2207455, 0.21373165, -0.098419726, 0.14322188, -0.162478, 0.17818527, -0.13441285, 0.030691024, 0.2180444, -0.047073394, 0.2397179, 0.14672121, -0.18297702, -0.099475175, 0.23793393, 0.04667373, -0.1534521, 0.18005143, 0.13145187, -0.2248685, 0.13090685, 0.08101219, -0.16552871, -0.021926528, -0.045849413, 0.13926312, -0.108569264, -0.110886246, -0.07128462, 0.14717144, 0.064369485};
float b5[] = {0.0007292905, -0.04440714, 0.015556674, -0.07102658, -0.11946318, 0.121672966, 0.06761979, 0.14525986};

static MicroNeuralNetwork mnn = {0};
mnn.num_layers = 6;

mnn.layers[0].input_size = 8;
mnn.layers[0].output_size = 16;
memcpy(mnn.layers[0].weights, w0, sizeof(w0));
memcpy(mnn.layers[0].biases, b0, sizeof(b0));

mnn.layers[1].input_size = 16;
mnn.layers[1].output_size = 8;
memcpy(mnn.layers[1].weights, w1, sizeof(w1));
memcpy(mnn.layers[1].biases, b1, sizeof(b1));

mnn.layers[2].input_size = 8;
mnn.layers[2].output_size = 2;
memcpy(mnn.layers[2].weights, w2, sizeof(w2));
memcpy(mnn.layers[2].biases, b2, sizeof(b2));

mnn.layers[3].input_size = 2;
mnn.layers[3].output_size = 8;
memcpy(mnn.layers[3].weights, w3, sizeof(w3));
memcpy(mnn.layers[3].biases, b3, sizeof(b3));

mnn.layers[4].input_size = 8;
mnn.layers[4].output_size = 16;
memcpy(mnn.layers[4].weights, w4, sizeof(w4));
memcpy(mnn.layers[4].biases, b4, sizeof(b4));

mnn.layers[5].input_size = 16;
mnn.layers[5].output_size = 8;
memcpy(mnn.layers[5].weights, w5, sizeof(w5));
memcpy(mnn.layers[5].biases, b5, sizeof(b5));

